{
  "config": {
    "lp_order": 9,
    "output_count": 6,
    "sampling_decimate": 6,
    "window_length": 18,
    "momentum": 0.5,
    "learning_rate": 0.012139876637552522
  },
  "layers": [
    [
      {
        "bias": 0.07217847950209505,
        "weights": [
          1.3294330216229662,
          3.0702758065022993,
          1.7158065914863185,
          -1.6215249304947592,
          -2.6803259512964437,
          -0.18161741692183192,
          -0.6638810023144394,
          1.8496815288052673,
          1.0822062346915124
        ]
      },
      {
        "bias": -0.2595787883474447,
        "weights": [
          1.7650507440910914,
          0.48385020885717867,
          3.7844963117290775,
          0.18725249048343376,
          3.829597193031312,
          0.8956158483015648,
          -1.9717472679989563,
          -5.3376860461412585,
          -0.17287691148064274
        ]
      },
      {
        "bias": 0.6599955672011772,
        "weights": [
          0.38686414108486383,
          -0.6670669016419769,
          -2.700745480874975,
          3.373996564550056,
          -0.6816518542231855,
          -0.8007019484238249,
          -7.185925638074318,
          4.189980472507723,
          -1.069876462781825
        ]
      },
      {
        "bias": 3.0089237395320683,
        "weights": [
          -1.1215981444343714,
          -3.598833787477912,
          -3.053158337483998,
          -0.1343011957499318,
          -2.6305407001370793,
          -0.3799145330750725,
          1.0755751400546605,
          5.490310199089991,
          -0.06572415992494654
        ]
      },
      {
        "bias": 0.8121771523495922,
        "weights": [
          3.723760510909374,
          4.5543681049111004,
          4.28738432476062,
          5.70152316623874,
          2.7208346783989135,
          -0.2434573134962268,
          -0.07815483199616795,
          0.5886574475171711,
          4.7327414830400745
        ]
      },
      {
        "bias": 0.423501747940637,
        "weights": [
          0.15342871950536288,
          -0.12675648170389509,
          0.4236771020044274,
          -0.4432297166514752,
          -0.6367352895729689,
          0.4584551296765551,
          2.5903522700857633,
          1.3603108747038253,
          0.8648050887911999
        ]
      },
      {
        "bias": 0.5011257992488909,
        "weights": [
          0.5631938766886101,
          8.50078693926361,
          -7.17096648523539,
          -6.8143968365178615,
          -3.628414704336315,
          2.6173842320269567,
          0.11642628018996218,
          -2.2786948065616333,
          0.6704375955465158
        ]
      },
      {
        "bias": -1.4316524301840465,
        "weights": [
          2.043511249423846,
          4.980632210239175,
          7.43961109762924,
          1.1341253670028348,
          4.005721577903769,
          3.9156087558118093,
          1.3642152580932256,
          1.5918710595497958,
          3.849052976379828
        ]
      },
      {
        "bias": 0.772525312690497,
        "weights": [
          1.7076761622600156,
          5.041128889250111,
          -3.633522648234191,
          4.513267859847874,
          -5.7109141764918006,
          -0.8325342529023851,
          -8.853467365776643,
          4.895890502150203,
          -0.213180777541959
        ]
      },
      {
        "bias": NaN,
        "weights": [
          NaN,
          NaN,
          NaN,
          NaN,
          NaN,
          NaN,
          NaN,
          NaN,
          NaN
        ]
      },
      {
        "bias": NaN,
        "weights": [
          NaN,
          NaN,
          NaN,
          NaN,
          NaN,
          NaN,
          NaN,
          NaN,
          NaN
        ]
      },
      {
        "bias": NaN,
        "weights": [
          NaN,
          NaN,
          NaN,
          NaN,
          NaN,
          NaN,
          NaN,
          NaN,
          NaN
        ]
      },
      {
        "bias": NaN,
        "weights": [
          NaN,
          NaN,
          NaN,
          NaN,
          NaN,
          NaN,
          NaN,
          NaN,
          NaN
        ]
      },
      {
        "bias": NaN,
        "weights": [
          NaN,
          NaN,
          NaN,
          NaN,
          NaN,
          NaN,
          NaN,
          NaN,
          NaN
        ]
      },
      {
        "bias": NaN,
        "weights": [
          NaN,
          NaN,
          NaN,
          NaN,
          NaN,
          NaN,
          NaN,
          NaN,
          NaN
        ]
      },
      {
        "bias": NaN,
        "weights": [
          NaN,
          NaN,
          NaN,
          NaN,
          NaN,
          NaN,
          NaN,
          NaN,
          NaN
        ]
      },
      {
        "bias": NaN,
        "weights": [
          NaN,
          NaN,
          NaN,
          NaN,
          NaN,
          NaN,
          NaN,
          NaN,
          NaN
        ]
      },
      {
        "bias": NaN,
        "weights": [
          NaN,
          NaN,
          NaN,
          NaN,
          NaN,
          NaN,
          NaN,
          NaN,
          NaN
        ]
      },
      {
        "bias": NaN,
        "weights": [
          NaN,
          NaN,
          NaN,
          NaN,
          NaN,
          NaN,
          NaN,
          NaN,
          NaN
        ]
      },
      {
        "bias": NaN,
        "weights": [
          NaN,
          NaN,
          NaN,
          NaN,
          NaN,
          NaN,
          NaN,
          NaN,
          NaN
        ]
      },
      {
        "bias": NaN,
        "weights": [
          NaN,
          NaN,
          NaN,
          NaN,
          NaN,
          NaN,
          NaN,
          NaN,
          NaN
        ]
      },
      {
        "bias": NaN,
        "weights": [
          NaN,
          NaN,
          NaN,
          NaN,
          NaN,
          NaN,
          NaN,
          NaN,
          NaN
        ]
      },
      {
        "bias": NaN,
        "weights": [
          NaN,
          NaN,
          NaN,
          NaN,
          NaN,
          NaN,
          NaN,
          NaN,
          NaN
        ]
      },
      {
        "bias": NaN,
        "weights": [
          NaN,
          NaN,
          NaN,
          NaN,
          NaN,
          NaN,
          NaN,
          NaN,
          NaN
        ]
      },
      {
        "bias": NaN,
        "weights": [
          NaN,
          NaN,
          NaN,
          NaN,
          NaN,
          NaN,
          NaN,
          NaN,
          NaN
        ]
      },
      {
        "bias": NaN,
        "weights": [
          NaN,
          NaN,
          NaN,
          NaN,
          NaN,
          NaN,
          NaN,
          NaN,
          NaN
        ]
      },
      {
        "bias": NaN,
        "weights": [
          NaN,
          NaN,
          NaN,
          NaN,
          NaN,
          NaN,
          NaN,
          NaN,
          NaN
        ]
      },
      {
        "bias": NaN,
        "weights": [
          NaN,
          NaN,
          NaN,
          NaN,
          NaN,
          NaN,
          NaN,
          NaN,
          NaN
        ]
      },
      {
        "bias": NaN,
        "weights": [
          NaN,
          NaN,
          NaN,
          NaN,
          NaN,
          NaN,
          NaN,
          NaN,
          NaN
        ]
      },
      {
        "bias": NaN,
        "weights": [
          NaN,
          NaN,
          NaN,
          NaN,
          NaN,
          NaN,
          NaN,
          NaN,
          NaN
        ]
      },
      {
        "bias": NaN,
        "weights": [
          NaN,
          NaN,
          NaN,
          NaN,
          NaN,
          NaN,
          NaN,
          NaN,
          NaN
        ]
      },
      {
        "bias": NaN,
        "weights": [
          NaN,
          NaN,
          NaN,
          NaN,
          NaN,
          NaN,
          NaN,
          NaN,
          NaN
        ]
      },
      {
        "bias": NaN,
        "weights": [
          NaN,
          NaN,
          NaN,
          NaN,
          NaN,
          NaN,
          NaN,
          NaN,
          NaN
        ]
      },
      {
        "bias": NaN,
        "weights": [
          NaN,
          NaN,
          NaN,
          NaN,
          NaN,
          NaN,
          NaN,
          NaN,
          NaN
        ]
      },
      {
        "bias": NaN,
        "weights": [
          NaN,
          NaN,
          NaN,
          NaN,
          NaN,
          NaN,
          NaN,
          NaN,
          NaN
        ]
      },
      {
        "bias": NaN,
        "weights": [
          NaN,
          NaN,
          NaN,
          NaN,
          NaN,
          NaN,
          NaN,
          NaN,
          NaN
        ]
      },
      {
        "bias": NaN,
        "weights": [
          NaN,
          NaN,
          NaN,
          NaN,
          NaN,
          NaN,
          NaN,
          NaN,
          NaN
        ]
      },
      {
        "bias": NaN,
        "weights": [
          NaN,
          NaN,
          NaN,
          NaN,
          NaN,
          NaN,
          NaN,
          NaN,
          NaN
        ]
      },
      {
        "bias": NaN,
        "weights": [
          NaN,
          NaN,
          NaN,
          NaN,
          NaN,
          NaN,
          NaN,
          NaN,
          NaN
        ]
      },
      {
        "bias": NaN,
        "weights": [
          NaN,
          NaN,
          NaN,
          NaN,
          NaN,
          NaN,
          NaN,
          NaN,
          NaN
        ]
      },
      {
        "bias": NaN,
        "weights": [
          NaN,
          NaN,
          NaN,
          NaN,
          NaN,
          NaN,
          NaN,
          NaN,
          NaN
        ]
      },
      {
        "bias": NaN,
        "weights": [
          NaN,
          NaN,
          NaN,
          NaN,
          NaN,
          NaN,
          NaN,
          NaN,
          NaN
        ]
      },
      {
        "bias": NaN,
        "weights": [
          NaN,
          NaN,
          NaN,
          NaN,
          NaN,
          NaN,
          NaN,
          NaN,
          NaN
        ]
      },
      {
        "bias": NaN,
        "weights": [
          NaN,
          NaN,
          NaN,
          NaN,
          NaN,
          NaN,
          NaN,
          NaN,
          NaN
        ]
      },
      {
        "bias": NaN,
        "weights": [
          NaN,
          NaN,
          NaN,
          NaN,
          NaN,
          NaN,
          NaN,
          NaN,
          NaN
        ]
      },
      {
        "bias": NaN,
        "weights": [
          NaN,
          NaN,
          NaN,
          NaN,
          NaN,
          NaN,
          NaN,
          NaN,
          NaN
        ]
      },
      {
        "bias": NaN,
        "weights": [
          NaN,
          NaN,
          NaN,
          NaN,
          NaN,
          NaN,
          NaN,
          NaN,
          NaN
        ]
      },
      {
        "bias": NaN,
        "weights": [
          NaN,
          NaN,
          NaN,
          NaN,
          NaN,
          NaN,
          NaN,
          NaN,
          NaN
        ]
      },
      {
        "bias": NaN,
        "weights": [
          NaN,
          NaN,
          NaN,
          NaN,
          NaN,
          NaN,
          NaN,
          NaN,
          NaN
        ]
      },
      {
        "bias": NaN,
        "weights": [
          NaN,
          NaN,
          NaN,
          NaN,
          NaN,
          NaN,
          NaN,
          NaN,
          NaN
        ]
      }
    ],
    [
      {
        "bias": 0.9538269579800978,
        "weights": [
          0.3703797688492102,
          0.03490075450790797,
          0.07959698353351229,
          1.0648576555699585,
          -1.4471825729229373,
          -0.293680288744022,
          1.2503353733014575,
          0.7712854275039263,
          -1.1730819618911619
        ]
      },
      {
        "bias": 1.2187396662801029,
        "weights": [
          -0.9630587749718136,
          -1.943112085850029,
          -0.3895196119031955,
          1.7871218983611792,
          -3.116485864112465,
          0.09660522527667736,
          4.2361194616525095,
          -2.5284405634343754,
          -0.7961819752557657
        ]
      },
      {
        "bias": 1.5472142123796517,
        "weights": [
          0.798277998743992,
          -0.28129175961418973,
          0.7225431229480681,
          0.7337829818948236,
          0.4909733213628481,
          0.14021394779384824,
          1.1701545708164416,
          0.6615305891307097,
          0.29369677249687076
        ]
      },
      {
        "bias": 0.6414771128904694,
        "weights": [
          -2.3110832117670927,
          -1.8931483091346166,
          1.1132921557486832,
          1.3541946812086871,
          -3.7740813470349703,
          -0.0335632289398081,
          -0.2673563318203427,
          -2.6609310145966645,
          -0.6208889833927042
        ]
      },
      {
        "bias": 0.9249997829465585,
        "weights": [
          -1.582195814272895,
          0.15644833045914816,
          0.4641925384500842,
          1.725171745824271,
          -1.4707101175367927,
          -1.2212314439709755,
          3.083705686920264,
          -4.805673263376255,
          0.9496700848064624
        ]
      },
      {
        "bias": 0.734681981988968,
        "weights": [
          -0.14565199195169468,
          -0.0140513516658742,
          0.6172927917968963,
          0.4187933611573646,
          -1.472233863227712,
          -0.7942852644852901,
          -1.02783044392026,
          -0.2478364167815106,
          0.26626953770358475
        ]
      },
      {
        "bias": 1.517351152107804,
        "weights": [
          -0.13444009463896012,
          1.6553583941421626,
          -2.349850689927611,
          -0.8722858493016108,
          0.6187310321835569,
          0.5131416733558135,
          -1.0575541835491777,
          -0.23276563409741372,
          -3.3478117571534582
        ]
      },
      {
        "bias": 0.7326725610922716,
        "weights": [
          -0.6702439960251946,
          1.1765898977979257,
          -1.374799877052878,
          -0.9498396706684173,
          -1.293919966465699,
          -0.6448598812651838,
          3.755325184467,
          1.263998549409001,
          -2.5308786556878866
        ]
      },
      {
        "bias": 0.7880856374899258,
        "weights": [
          -0.526616977010962,
          -0.9007254898949975,
          0.8263283256886156,
          -0.1794029702400862,
          -0.7442395923864805,
          0.419964876687273,
          0.7958216192306089,
          0.42428913316707695,
          1.4497088916521415
        ]
      },
      {
        "bias": 1.1513592203312653,
        "weights": [
          0.5517114812491491,
          0.8084411717903209,
          1.582081022506217,
          -0.8210996600526498,
          0.21821665528770334,
          0.18456221890657876,
          -0.779681213245666,
          0.12440967833489043,
          -0.32026608684985686
        ]
      },
      {
        "bias": -0.29677580313449153,
        "weights": [
          -1.2778563488110013,
          0.08381627521297404,
          0.9555110007516316,
          0.5907848167409737,
          1.4693738879616611,
          -0.6852026571690932,
          -4.6722692177533585,
          1.795959535607004,
          0.47504035250386295
        ]
      },
      {
        "bias": 0.3867554853942672,
        "weights": [
          -1.3244128152441368,
          0.23190676758187048,
          0.21393249793804747,
          0.28199984929822897,
          1.0878277856943706,
          0.14797301084197223,
          -0.8832972472711563,
          1.5386884980463797,
          0.5648975026789543
        ]
      },
      {
        "bias": 1.1706966029745436,
        "weights": [
          -1.9060818401896513,
          0.8440389461879967,
          -2.148707364222912,
          -1.458462170293444,
          1.558697705317337,
          0.23549320420263448,
          -2.1252290000308007,
          2.156484353111541,
          -3.725127314398983
        ]
      },
      {
        "bias": 1.0795145323139714,
        "weights": [
          -0.28442567917123146,
          0.4856563376950241,
          0.49788528960505735,
          1.1341540611488956,
          -1.0409204775078185,
          0.6343969488405922,
          -0.719774731051731,
          0.11664202766723557,
          0.18298636746083333
        ]
      },
      {
        "bias": 1.1087579431256382,
        "weights": [
          1.0606870216741147,
          -1.1224415620487505,
          0.6916381356676892,
          1.4718832125090922,
          -0.6151931432488028,
          -0.7631830432841122,
          -1.2460460198188765,
          -1.8231638962768304,
          1.6395322854388525
        ]
      },
      {
        "bias": 0.9201636645010125,
        "weights": [
          -0.3646688459952153,
          2.4960652947966144,
          -0.47156905494060447,
          -2.6830503280787763,
          1.8627857828861494,
          -1.246300889457724,
          -0.9886165201570218,
          1.8510778189631067,
          -3.7956988332966106
        ]
      },
      {
        "bias": -0.3634109934283664,
        "weights": [
          -0.22983407578663378,
          1.0881608301600723,
          1.2133943880615974,
          -1.3474119542718954,
          1.0339670482552825,
          -1.4049199832734431,
          -3.5514883346539916,
          0.7401512752059793,
          1.9683003105819137
        ]
      },
      {
        "bias": 1.1886164160825197,
        "weights": [
          1.2626768460957198,
          0.8122612447573617,
          0.786210600681899,
          0.38846137328209446,
          0.31123238519501295,
          -0.6905092034835673,
          0.6043713664345496,
          0.37416357178425136,
          -0.6993138460215362
        ]
      },
      {
        "bias": 0.9621545254732682,
        "weights": [
          0.6225357500898849,
          1.275985284285281,
          -0.4529424314994409,
          0.29173269124941276,
          -1.1690196534148003,
          -0.09070231727790327,
          -0.6826157371703805,
          0.3260191391616786,
          0.032390816223012264
        ]
      },
      {
        "bias": 0.591446062004611,
        "weights": [
          -0.6028715774402423,
          -0.2987183106182984,
          1.1160486783133814,
          -0.44528106301565645,
          -0.07056489769906829,
          -0.6788999362942567,
          -0.9522952229172349,
          2.6225377221724946,
          0.6564513388467846
        ]
      },
      {
        "bias": 1.0477523577819081,
        "weights": [
          -0.03763070787436053,
          -0.013019386095572088,
          0.7801094137370341,
          0.4824140056684015,
          1.2298208667755257,
          -0.12249803592466325,
          0.6865402873148827,
          -0.19286583810399094,
          -0.24823719417404916
        ]
      },
      {
        "bias": 1.1495873203179994,
        "weights": [
          -1.4075049596020621,
          -0.09988521931802397,
          1.61714571309648,
          2.4734094402011935,
          -5.391734962814602,
          -1.407591957829153,
          -0.7680628369249064,
          -3.589563695896159,
          -0.682677547503258
        ]
      },
      {
        "bias": 0.684376933654508,
        "weights": [
          0.39336760489923406,
          -2.256290453138912,
          -0.9845566536882753,
          1.90097752858491,
          -0.6619682296913116,
          -0.13616921066933105,
          2.150018073070475,
          -2.4399960226593054,
          0.06373242391184403
        ]
      },
      {
        "bias": 0.6142735233188372,
        "weights": [
          2.7610788296540982,
          1.9534985452298468,
          -3.22816194422002,
          -1.572550138779044,
          3.3240829595541332,
          -0.29437373133686456,
          3.1182831977416274,
          -1.255197077884588,
          -1.3971362016046225
        ]
      },
      {
        "bias": 3.623971477639905,
        "weights": [
          0.7663353950995574,
          2.885275021476489,
          -3.146292664772188,
          -0.72533433586234,
          -0.689809262691323,
          2.782558951851975,
          5.617729262820182,
          -0.6792168722725447,
          -5.562672166085824
        ]
      },
      {
        "bias": 0.7308335862803174,
        "weights": [
          -1.023738699505682,
          -0.3607706410635491,
          -0.1808510661876983,
          -0.21834131211876423,
          -0.7037239202117879,
          0.9860914284194958,
          -1.3517493429814755,
          3.33849945328623,
          -1.4478737863198103
        ]
      },
      {
        "bias": 0.8101939710744877,
        "weights": [
          1.3445964068878207,
          0.33797052553639195,
          -1.6032258647610456,
          0.3293256981776964,
          0.6330574854187146,
          0.03543392300568918,
          -0.9713145436942628,
          0.9017781281462874,
          -0.26333017298619166
        ]
      },
      {
        "bias": 0.7571189331925522,
        "weights": [
          1.6494266319755293,
          -1.0139921381649675,
          -1.9179455624824626,
          -0.9912930137927497,
          -0.6028376134531903,
          0.629308965553193,
          -0.04483231515768351,
          -2.690856264729329,
          -0.1349172030158876
        ]
      },
      {
        "bias": 0.7619930213595764,
        "weights": [
          0.35435452592159417,
          -0.8396338371864492,
          1.0860395123406033,
          0.09309640518431761,
          0.8330560400313953,
          0.7495691147555914,
          0.48248064201326524,
          0.6104091398480255,
          0.13245286386994862
        ]
      },
      {
        "bias": 1.5310436197898625,
        "weights": [
          1.3409907665151164,
          -1.1719071839454218,
          -1.8063488826100342,
          -0.37879432566359494,
          -2.7326763511521053,
          1.375412249519111,
          4.226814825857732,
          0.0922017936258203,
          -1.846435503587102
        ]
      },
      {
        "bias": 1.265446044520077,
        "weights": [
          0.5888381135180525,
          -0.38733682059337,
          0.5976909222673908,
          0.5948327107057184,
          0.5443990308486687,
          0.44803896429947887,
          -0.3760009646361318,
          0.8070393835394118,
          0.2823454479203946
        ]
      },
      {
        "bias": 1.138410178456004,
        "weights": [
          0.12737866943105636,
          -0.19164569386213298,
          1.3041297696437513,
          0.23272787525021174,
          -0.08094100901799774,
          -0.88352123713576,
          2.112403853598213,
          -0.6058755192601193,
          0.8050274850450764
        ]
      },
      {
        "bias": 1.2889715215259416,
        "weights": [
          0.37592519098620514,
          0.5584477040537797,
          1.7741618267383548,
          1.282472216647934,
          -0.2806808211417644,
          0.2982917789562014,
          -1.8201571351031256,
          -2.1384710770818867,
          0.4415291678061158
        ]
      },
      {
        "bias": 0.8615318608529132,
        "weights": [
          -0.2957675266220678,
          -1.8035712552128509,
          -0.14606441824206265,
          1.7446935566586683,
          -5.458904276181819,
          0.2821007860871105,
          -0.44742457410770514,
          -3.7505982260244233,
          0.9044257395797355
        ]
      },
      {
        "bias": 0.3590338326272261,
        "weights": [
          -0.927471240401867,
          -0.33446480181662486,
          -0.021371729008673828,
          -0.2183315398307766,
          0.7862628348750329,
          -0.5000773292668521,
          -0.12538838322427154,
          -0.46776192844423237,
          1.1319122272823918
        ]
      },
      {
        "bias": 1.1337436347908096,
        "weights": [
          -0.15251469170568524,
          0.7846360970987967,
          0.2508651677242982,
          0.42264248861228865,
          0.5386576303650216,
          0.13255197055943146,
          -0.48906914760510306,
          -0.1352781986310491,
          0.9436752938203109
        ]
      },
      {
        "bias": 1.1999592118261857,
        "weights": [
          -0.5345211900649274,
          0.03489667969511294,
          1.1125252329221191,
          1.0918714999731527,
          -0.4760920566252132,
          0.8812447892538368,
          0.5107567446153637,
          0.32036617184893024,
          0.17960307465052847
        ]
      },
      {
        "bias": 1.09698948422446,
        "weights": [
          -0.7799466748255663,
          -0.6146446897728571,
          0.1653080436336784,
          0.6121698039627186,
          0.06442481034822699,
          0.5496193475906974,
          0.817595660632998,
          0.870239610727827,
          0.7525948131980575
        ]
      },
      {
        "bias": 0.6781369542697075,
        "weights": [
          0.22401813160469644,
          0.6795024617681393,
          0.10524369503169444,
          0.13944479691414752,
          1.3768815392813432,
          0.33635732123372947,
          -1.255149651753846,
          0.4744904645417125,
          0.7488237124954261
        ]
      },
      {
        "bias": 1.1720364539937023,
        "weights": [
          -1.0267669578413194,
          2.0247985375740325,
          -0.7014605468350743,
          -1.5597832318198837,
          0.24165236332892234,
          -0.16586900662120685,
          -1.969805121491318,
          1.1828697858230968,
          -2.8033372690845644
        ]
      },
      {
        "bias": 0.7295615859264045,
        "weights": [
          -0.07811863216198385,
          0.5448105853796354,
          -0.47294409659048,
          -0.12045980154451756,
          0.4506455292338963,
          0.07909424869841293,
          -0.21071004611052313,
          -1.578300731183403,
          0.45156208445891344
        ]
      },
      {
        "bias": 1.2567346478360806,
        "weights": [
          -0.22927625175188546,
          0.2454822856917923,
          0.6127699635295403,
          0.6920671643258457,
          -0.6196654229971438,
          0.9282074817518962,
          0.1747749466827654,
          0.9536208854575311,
          -0.4503143944092015
        ]
      },
      {
        "bias": 1.1518275661054702,
        "weights": [
          0.8170781626869706,
          0.6926861248936509,
          0.7713480558954627,
          0.09785215251100747,
          -0.1417146919020317,
          0.30731005761170893,
          0.03956441652015215,
          0.0825213845683356,
          -0.4049793546848147
        ]
      },
      {
        "bias": 0.925166618506986,
        "weights": [
          0.819362475738467,
          0.9808661335119304,
          -1.1790214188265506,
          -0.6032013265380441,
          0.05784967523666434,
          -0.29868578167104515,
          1.260396819167179,
          -0.4662033695083595,
          0.6431120704647172
        ]
      },
      {
        "bias": 2.065207848722754,
        "weights": [
          0.09449319492324391,
          -2.6631761343896403,
          1.4547470247044902,
          4.183455033963572,
          -1.3840848184034833,
          1.2787830887957905,
          -2.4087329311662584,
          -1.9214257205012757,
          0.9668846944341686
        ]
      },
      {
        "bias": 0.8264962888414976,
        "weights": [
          0.179068002758629,
          -1.2166613677443878,
          -0.47223905269322847,
          1.6927666448302077,
          -0.7960921831451353,
          -1.0081241319182173,
          0.7868842733597863,
          -1.0341358918913428,
          1.199849134001937
        ]
      },
      {
        "bias": 0.7904654917741075,
        "weights": [
          -1.6384694029019329,
          1.3070227453698273,
          1.2201452567292284,
          -2.017396547789318,
          3.0632476123341115,
          -0.6290008530510873,
          -0.24457604781140907,
          1.8169853209594014,
          0.9577201312595767
        ]
      },
      {
        "bias": 0.15439381376069394,
        "weights": [
          1.0246905973016374,
          0.553877313580633,
          0.5406935474350774,
          -0.598511632064605,
          0.7316889739861574,
          -0.5778442659383851,
          -3.192483998974247,
          -0.9329158866751417,
          1.357078048582544
        ]
      },
      {
        "bias": 0.616887094257121,
        "weights": [
          0.04716697220087969,
          -2.2820864682527358,
          -1.7482051434058632,
          1.5242918039988769,
          -0.47196338976114194,
          -0.6604723190960101,
          3.825611505636959,
          -4.205771292868308,
          -1.5199377122240865
        ]
      },
      {
        "bias": 0.6149367462928736,
        "weights": [
          -1.1034913235384594,
          -1.4391605753369412,
          -0.2733241382339154,
          -0.4740197636435883,
          0.08917568162423117,
          0.7536041035060652,
          0.16744277726869125,
          0.8680514487594381,
          0.05387519173386102
        ]
      }
    ],
    [
      {
        "bias": 0.5991773839629604,
        "weights": [
          0.24790051786007197,
          -3.1721344644042677,
          -1.0542820101626436,
          -1.3882270663912746,
          -3.81016724332898,
          -0.6003655665408357,
          -1.569940715101131,
          -1.7866708754816836,
          0.711889118461303,
          -0.8014516954777402,
          2.256838967045385,
          0.9398996191566561,
          -2.212183073205715,
          0.20847578392348437,
          1.3622076971872512,
          -2.0830477004587777,
          1.4326120087777947,
          -0.09047655797230783,
          -0.5847826432901667,
          -0.619867846083716,
          0.5058740568213886,
          -1.9270196940410547,
          -0.9848751804697118,
          0.006032885791764843,
          -2.933544972679032,
          2.057394309886645,
          0.6922009926462296,
          -1.2732839675728465,
          0.6743089510282095,
          -1.2877244120872813,
          -0.5874922394748513,
          -0.48263747877181473,
          0.3878046507663925,
          -2.6928334642514167,
          -0.1066347498130361,
          0.2479681518346969,
          -0.631544256561156,
          0.17771902998562258,
          0.01850007587869664,
          -2.0227809716580247,
          -1.1552640172262474,
          0.39576883779293204,
          -0.8273895892513137,
          0.2308402837394907,
          1.1981510034684002,
          -0.7584680214551667,
          0.22340918141318783,
          0.5955407779531802,
          -0.8459402760189673,
          0.40622906994974584
        ]
      },
      {
        "bias": 0.7775287885905756,
        "weights": [
          0.7858299204491267,
          1.6649148841440882,
          0.4202659736806777,
          -1.5583134563903847,
          -0.7860227217187533,
          -0.9180286122087009,
          0.751741795361856,
          0.5831484327964662,
          -0.21675852281895994,
          0.31786395563084235,
          -2.6575029946059865,
          1.2242223968011579,
          2.943044548653763,
          0.006694291086876331,
          -1.3401733896192527,
          2.605544967757906,
          -1.6000726783827017,
          -1.0250965569679775,
          -1.6661084284869492,
          0.45850942259845195,
          0.4853723721527872,
          -2.9954071754990936,
          0.4580468102020835,
          -0.251334174140219,
          3.060200647279327,
          0.40805782258069023,
          -1.0776050985550412,
          -1.6941919615971728,
          0.07294535242227324,
          1.7741916418744708,
          0.6786479783731793,
          -1.2644021125433673,
          -1.2028349945440242,
          -2.603369369700918,
          0.4775634640324744,
          0.1928832247962178,
          -0.7664605446763367,
          -0.611846605102726,
          0.8519611094556944,
          0.9110783619141958,
          -0.764256786514444,
          0.052876906640473696,
          0.16811757838861685,
          -0.42227554998597167,
          -2.163831555326433,
          -1.2480771181438837,
          2.6870618784005176,
          -1.9917974319005187,
          1.1224126913553543,
          0.8666576236532042
        ]
      },
      {
        "bias": 0.8528123448797321,
        "weights": [
          -0.8828496430413759,
          3.8405432984438237,
          -0.6460124023764531,
          -3.057986715876205,
          -0.6921038696432444,
          -0.6153419295157058,
          -1.3301178768014046,
          -0.30274532822572947,
          1.0774368366781806,
          -0.3936518046684818,
          -0.2784819316087262,
          0.999757115733688,
          -2.00630678724952,
          0.7195920141097273,
          -0.40099114496125793,
          -2.6439747295461347,
          0.12107515807492099,
          -0.47931830573161094,
          -0.021276060130713485,
          1.3431715278964715,
          0.6994925864660791,
          -3.479325515734422,
          2.5482180184266223,
          -1.672708418723127,
          -6.806613419760129,
          0.9502058335600497,
          -0.02885171687338828,
          -0.7033516867735745,
          0.04674249699323593,
          0.33615541357298134,
          -0.9008764724008713,
          1.379574882417069,
          -1.6092262999512472,
          -4.395592110931773,
          0.8727893039842182,
          -0.8644945428724087,
          0.8419223458856099,
          -0.4682977833909417,
          0.5595274012539356,
          -1.1121071529819337,
          0.11521309264790083,
          0.5756826102227646,
          -0.8269116920548644,
          -0.4359984685821641,
          2.519801701107251,
          0.9255170205757149,
          2.308048339517362,
          0.9538064067869155,
          -1.093420930182953,
          0.8632414287878742
        ]
      },
      {
        "bias": 1.2267811499840553,
        "weights": [
          0.4395542211398076,
          0.4081899074541743,
          0.9803723139453545,
          0.0014771801438321543,
          -0.7680349740389864,
          -1.3585021104880668,
          2.0097974191501042,
          1.7938375770380455,
          -0.48984860529038177,
          -0.5926531411322687,
          -1.5524816967765922,
          -0.44287713127945016,
          2.322455584427011,
          -0.29047587069700775,
          -1.661850212606252,
          1.9078644801001838,
          -1.2763542949645788,
          0.18343188777828265,
          0.26698045445807345,
          -0.26538487086199625,
          0.873604529493982,
          0.9036123260797301,
          -0.37331066406602437,
          0.7693437868402865,
          3.049466886745158,
          0.414545464419662,
          -0.02463732774169234,
          0.7119631773390177,
          -0.24904798084546978,
          1.9674952567897184,
          -0.1250547199160432,
          0.33948045302611785,
          -0.9552422076949824,
          1.733134794951876,
          -1.1863948108499407,
          0.08355210626573967,
          -0.15874941706635992,
          0.9462192392983729,
          -0.6069805637631583,
          1.633896030227815,
          -0.5267138711558385,
          0.17492358520389942,
          -0.08808672216374826,
          -0.21952211913118183,
          -1.9861603116450477,
          -1.1844327696850454,
          -1.241971060519038,
          -0.777137404671102,
          3.685685192287127,
          1.041995048442525
        ]
      },
      {
        "bias": 0.9286794016028727,
        "weights": [
          0.7842007634395073,
          2.325604199414341,
          -0.12398767786428372,
          1.5648258047332824,
          2.503672435154086,
          -0.2536806515120448,
          -1.1865221040974785,
          -0.32150835725427473,
          -0.5575301946129567,
          0.2241542662253339,
          -1.9424090376496272,
          0.35915589506308054,
          -0.9373052463986967,
          0.6491842033439944,
          1.5219435245775623,
          -2.4585825518031834,
          -2.128663233498193,
          -0.22310305807531053,
          -0.4551336356697707,
          -0.5934809861416827,
          -0.5303747494507947,
          1.8798512549043767,
          1.7675043315230707,
          -0.4985253672246476,
          1.727384975663425,
          -1.8945302358593208,
          -1.1197785251181407,
          0.3576524971843554,
          -0.9622365111390543,
          1.2732226298889702,
          -0.8636174325172796,
          0.40752921344587173,
          0.14368733229858843,
          2.2283784653135617,
          -0.34532867248731686,
          -0.9812800959708209,
          -0.3258322212360123,
          0.6040917558248355,
          -1.1667559808421686,
          -2.0938874469490547,
          -0.6489860411443767,
          0.5284005351962541,
          -0.1692336215686448,
          1.355995763496429,
          3.1706990676621913,
          1.0307460517460558,
          -0.9977543785415348,
          -0.9574772875386878,
          2.2699042338463054,
          0.056022652773390996
        ]
      },
      {
        "bias": 1.397525671244298,
        "weights": [
          1.2575051647860516,
          -0.05567369642150015,
          -0.40240313171610925,
          3.1769937207274737,
          -3.7858696896133894,
          1.2411077662500936,
          -2.373828344737803,
          2.9334728123586378,
          0.9069718694595529,
          0.8621090873918383,
          -1.2671706889793706,
          1.0039411951497461,
          -0.35445544466923334,
          0.0887754322848051,
          -0.7053067596866802,
          -0.07062391069403001,
          -2.2537124829256228,
          -0.1502430143691117,
          0.2955031410634986,
          2.7549326802594245,
          0.09869160168179375,
          4.937315864604735,
          0.27972683147363303,
          -5.8536977590808,
          -3.1308360353434534,
          3.0203220768080272,
          -0.7220400629027839,
          -2.463110840592507,
          0.9556862133790451,
          3.6296633171438666,
          0.6325208322085488,
          1.271148749899513,
          -1.7542520553201901,
          2.8267513492824845,
          -0.13147306255752148,
          -0.09091903729810724,
          -0.3083463912298811,
          1.5097964687780634,
          0.3728257211955119,
          -1.4013904157972288,
          -0.9136789121393236,
          0.01570053515232108,
          0.2573895478657368,
          -0.8996730253201105,
          -2.8567980072828467,
          -0.14614811339479053,
          0.39706902994672044,
          -1.2466090148277071,
          -4.588762225375637,
          0.8496004941957711
        ]
      }
    ]
  ],
  "test_vectors": [
    {
      "input": [
        0.1,
        0.15,
        0.2,
        0.25,
        0.3,
        0.35,
        0.4,
        0.45,
        0.5
      ],
      "expected_output": [
        0.065197472501,
        0.978068653806,
        0.023209113643,
        0.990084958101,
        0.004830524973,
        0.084689828699
      ]
    },
    {
      "input": [
        0.2,
        0.25,
        0.3,
        0.35,
        0.4,
        0.45,
        0.5,
        0.55,
        0.6
      ],
      "expected_output": [
        0.031579022631,
        0.987443629544,
        0.007227109634,
        0.996094518151,
        0.002026987863,
        0.036861221268
      ]
    },
    {
      "input": [
        0.3,
        0.35,
        0.4,
        0.45,
        0.5,
        0.55,
        0.6,
        0.65,
        0.7
      ],
      "expected_output": [
        0.016529511866,
        0.992317455247,
        0.002881088794,
        0.998208087542,
        0.001021334586,
        0.021723900059
      ]
    },
    {
      "input": [
        0.4,
        0.45,
        0.5,
        0.55,
        0.6,
        0.65,
        0.7,
        0.75,
        0.8
      ],
      "expected_output": [
        0.009495924952,
        0.995000750053,
        0.001374260352,
        0.999060938692,
        0.000553448918,
        0.015674144636
      ]
    },
    {
      "input": [
        0.5,
        0.55,
        0.6,
        0.65,
        0.7,
        0.75,
        0.8,
        0.85,
        0.9
      ],
      "expected_output": [
        0.005901417497,
        0.996609860598,
        0.000743940028,
        0.999458709161,
        0.000304232486,
        0.013001025612
      ]
    },
    {
      "input": [
        0.6,
        0.65,
        0.7,
        0.75,
        0.8,
        0.85,
        0.9,
        0.95,
        1.0
      ],
      "expected_output": [
        0.003869758912,
        0.997672093187,
        0.000437587851,
        0.999671356413,
        0.000163382788,
        0.012183190576
      ]
    },
    {
      "input": [
        0.7,
        0.75,
        0.8,
        0.85,
        0.9,
        0.95,
        1.0,
        1.05,
        1.1
      ],
      "expected_output": [
        0.00260453554,
        0.998431504357,
        0.000268090404,
        0.999798552751,
        8.2957352e-05,
        0.013019835623
      ]
    },
    {
      "input": [
        0.8,
        0.85,
        0.9,
        0.95,
        1.0,
        1.05,
        1.1,
        1.15,
        1.2
      ],
      "expected_output": [
        0.001762520026,
        0.9989844153,
        0.000165423487,
        0.999878842771,
        3.9126593e-05,
        0.016009665355
      ]
    },
    {
      "input": [
        0.9,
        0.95,
        1.0,
        1.05,
        1.1,
        1.15,
        1.2,
        1.25,
        1.3
      ],
      "expected_output": [
        0.001201363233,
        0.999358720125,
        0.000103005955,
        0.999927873641,
        1.7715583e-05,
        0.021954850591
      ]
    },
    {
      "input": [
        1.0,
        1.05,
        1.1,
        1.15,
        1.2,
        1.25,
        1.3,
        1.35,
        1.4
      ],
      "expected_output": [
        0.000849183411,
        0.999581614729,
        6.7955947e-05,
        0.999955212174,
        8.471019e-06,
        0.030811925771
      ]
    }
  ]
}